1403636581.313555 0.309578 3.547676 0.378541 
1403636581.463556 -1.433362 2.401070 -3.761381 
1403636581.613555 -1.530010 2.735242 -4.013759 
1403636581.763556 -1.095180 2.838776 -2.925780 
1403636581.913555 -1.066466 2.798977 -2.842384 
1403636582.063555 -1.093193 2.866701 -2.907774 
1403636582.213556 -0.998191 3.530499 -2.675866 
1403636582.413555 -0.571984 2.458241 -1.489240 
1403636582.513556 -0.510056 2.390100 -1.307579 
1403636582.663556 -0.371482 2.114813 -0.911886 
1403636582.863556 -0.224416 2.151218 -0.554498 
1403636583.063555 -0.010767 0.628545 0.069462 
1403636583.213556 -0.008010 0.853400 0.068913 
1403636583.413555 -0.032183 1.000331 0.012865 
1403636583.613555 -0.082653 1.274919 -0.126278 
1403636583.813555 -0.123550 1.132834 -0.224295 
1403636584.063555 -0.158966 0.948352 -0.298069 
1403636584.263556 -0.127762 0.905773 -0.204463 
1403636584.463556 -0.131601 0.925166 -0.204301 
1403636584.663556 -0.115799 0.898479 -0.162822 
1403636584.863556 -0.140137 0.860635 -0.228087 
1403636585.063555 -0.213344 0.680433 -0.434920 
1403636585.213556 -0.224532 0.721198 -0.468285 
