1403636581.313555 -0.005093 0.018070 0.075993 
1403636581.463556 -0.003876 0.019666 0.077282 
1403636581.613555 -0.003835 0.020875 0.077847 
1403636581.763556 -0.003857 0.020711 0.078643 
1403636581.913555 -0.003458 0.021506 0.079100 
1403636582.063555 -0.003437 0.022061 0.079435 
1403636582.213556 -0.003426 0.022161 0.079586 
1403636582.413555 -0.002881 0.021431 0.079673 
1403636582.513556 -0.002861 0.021105 0.079557 
1403636582.663556 -0.003144 0.021120 0.079159 
1403636582.863556 -0.003479 0.020890 0.078495 
1403636583.063555 -0.004382 0.020265 0.077377 
1403636583.213556 -0.004228 0.020834 0.077666 
1403636583.413555 -0.003940 0.021374 0.078241 
1403636583.613555 -0.003700 0.021782 0.078825 
1403636583.813555 -0.003678 0.021915 0.078922 
1403636584.063555 -0.003569 0.021932 0.079285 
1403636584.263556 -0.003585 0.021968 0.079151 
1403636584.463556 -0.003471 0.021873 0.079185 
1403636584.663556 -0.003494 0.021750 0.079053 
1403636584.863556 -0.003547 0.021847 0.079034 
1403636585.063555 -0.003580 0.021959 0.079053 
1403636585.213556 -0.003574 0.021958 0.079094 
